svm_type c_svc
kernel_type linear
nr_class 2
total_sv 3
rho 1.05607
label 1 -1
nr_sv 2 1
SV
27.05254678331826 1:0.010204082 2:-0.25510204 
17.40615888366775 1:-0.35714286 2:-0.051020408 
-44.45870566698599 1:-0.030612245 2:0.010204082 
